solver_type L2R_LR
nr_class 2
label 1 -1
nr_feature 57
bias 0.000000000000000
w
-1.846683245386521 
-1.339569579526091 
-2.059598501789918 
1.075049622061903 
7.630364396181626 
4.419695970102890 
3.980863196244216 
14.02583326616713 
5.204823148714268 
2.171288321382082 
0.7278499618220302 
-0.7898091457847838 
-2.199397164122160 
1.492962515481572 
0.7556686854308343 
2.543151057373499 
22.68659800074882 
4.754011763668804 
3.222502188656237 
4.145530537504492 
9.772748732404231 
2.388563349587800 
15.92666552265369 
14.34121874644736 
26.41666654472007 
-26.27662967508046 
-15.19858683200642 
-45.57810596306412 
-0.4836829632983007 
-14.18033527325023 
-1.445665927815460 
-3.730413887199881 
-0.3724128113032208 
-16.76293723385685 
-5.854127539086928 
-10.78939457606577 
3.275300448299883 
-0.4250304357275330 
-5.695960908663326 
-10.68824094182366 
-1.811195485636242 
-15.89379074253231 
-21.82967339113663 
-3.508011777407762 
-16.84613090770973 
-13.24391564700981 
-10.94947189041209 
-4.946110882976567 
-16.52027634730087 
-0.2350010819253686 
-1.586054798778212 
-5.704335887242356 
48.72388535287495 
26.92699213491236 
8.520882408906557 
3.468741791205243 
13.30284652730492 
11.15567157969242 
